Date,AGG,EEM,EFA,GLD,IWM,MDY,PCRIX,SPY,TLT,VNQ,VWEHX
2008-01-31,0.0339392865985772,0.08658059948778689,0.07472005216903249,0.5350506614601974,-0.5097308761187843,0.583041454642182,-0.21858083912374462,0.32866175660601604,0.7345432581475742,0.05096531402983315,-0.6991906678986706
2008-02-29,0.22461689626697004,0.04064659427144689,0.1229109121939433,0.5020437858208907,-0.6032834345963878,0.605287493091364,-0.1260177661009272,0.44399217870728014,0.6079389818162413,0.07614549003943422,-0.8942811315102553
2008-03-31,0.1533745186362071,0.16911824880400628,0.1847921462327041,0.447580082065509,-0.4775479497102873,0.3745824997807208,-0.21075059731080045,0.04449164666227667,0.657706741202177,0.1219308326373163,-0.4652781689998292
2008-04-30,0.17623734930417068,0.3838999711112226,0.11069247098164957,0.27139144486524125,-0.48273814433707884,0.11399997466011201,-0.13445369177895405,-0.09480601742244216,0.5492454881471408,0.17044797965736594,-0.06391682518842769
2008-05-31,0.3884429909107818,0.08538147711218523,0.49866756797830764,0.4494293108241788,-0.9888375919832657,0.9343351901091707,-0.2567835033657133,-0.24309338753773133,0.31643162652874146,0.15613427973640806,-0.34010796031306323
2008-06-30,0.3897188420432844,0.149544160145815,0.2993690522640759,0.42887830185672077,-0.8998696778905741,0.9424889802323635,-0.18747902853517942,-0.3469366859990987,0.38839236459074966,0.10722107222537872,-0.2713273809335358
2008-07-31,0.9999999999999999,0.09489171072248936,0.43794560720487113,0.5834901520784926,-0.7379812139776869,0.9338785943633121,-0.4138340005503088,-0.6466690954110131,0.31427174444343603,0.08231056649663501,-0.6483040653702273
2008-08-31,0.5572436408659988,0.27124759051428715,-0.41731687845993687,0.6187014923654064,-0.5410040598579696,0.9741463867470432,-0.465166624594997,-0.18823172008910882,0.5904304853403948,0.027433583816911068,-0.4274838966480289
2008-09-30,0.5285902146767822,0.2526475119202669,-0.3127686120339809,0.5228458064506967,-0.5988082171449016,0.9687149878560686,-0.4028552690027252,-0.20423757944382673,0.5906528321935426,0.04131103773370979,-0.38609271320563254
2008-10-31,1.0,0.28257532803271185,-0.3272749961369683,0.43737681118431815,-0.3910994646217272,0.7979864943253312,-0.3268915685225401,-0.10634720241897556,0.5124127882144106,0.039246426181102995,-0.9179846162376638
2008-11-30,0.9999999999999998,0.3593179561814119,-0.42972286138386034,0.2582419673121267,0.083116031742522,0.007780140466678565,-0.18838581222303377,-0.20567388348646604,0.22536967391650284,0.050664787250730155,-0.16070799977661177
2008-12-31,0.9999999999999999,0.34341172186503316,-0.7033105428918032,0.2563859048135931,0.10543304752094478,0.027317024000132282,-0.14124868106253569,0.19540040450272003,0.19784302604112575,0.031003478545984196,-0.31223538333519424
2009-01-31,1.0,0.3333166519347439,-0.7243663137471061,0.30008906056579865,0.027018938149062203,0.05537750572315755,-0.1877689449925336,0.14308925065897724,0.08838386461526788,-0.012620427274802256,-0.02251958563256568
2009-02-28,0.9999999999999999,0.32494470473037157,-0.5040370031082336,0.22542178282231456,5.766879891272881e-05,-0.06786963607780659,-0.15735398318759009,0.008288991279173728,0.07249544918554422,-0.04423975376918476,0.1422917793264983
2009-03-31,1.0,0.5609964004628993,-1.0,0.11408571086800404,-0.08560319679608303,0.030635421789402578,-0.09937072157812435,0.2158143661578508,0.23716093537047764,-0.015923408240802586,0.042204491966375435
2009-04-30,1.0,0.567726229725781,-0.9999999999999998,0.04798492944201884,-0.5460493815070506,0.5260570178585062,-0.18410943324060325,0.07471558519363355,0.27663818853387684,0.11002963165727313,0.12700723233656422
2009-05-31,1.0,0.7347422696953655,-0.9999999999999999,0.12053513028827846,-0.040561580732194256,-0.09025821503928506,-0.1503698293947637,0.15176375114730842,0.1666340137349857,0.03357556916476866,0.07393889113553623
2009-06-30,1.0,0.7251414619311484,-1.0,0.11399538651755485,0.08780070512932729,-0.05845138447846557,-0.1492290763362502,0.04034306341869945,0.16261459524392433,-0.020423848319783864,0.0982090968938454
2009-07-31,1.0,0.6719747994069737,-0.8933450032276236,0.13373507611503122,0.21558721697251979,0.05572783414003236,-0.17286473217966358,-0.14278082428830177,0.1322339511796862,-0.07868029096985035,0.07841197285119597
2009-08-31,1.0,0.585448830165188,-0.8530709350106377,0.18823717239635002,-0.06415642510246905,0.33129799313228825,-0.1876968495244208,-0.07543374223257313,0.12150347657559647,-0.002339361822027368,-0.04379015857729473
2009-09-30,1.0,0.5161363174234276,-0.7538890231653378,0.2036011691609414,0.024447123166511257,0.30175744598446097,-0.161170166862193,-0.1467229378297758,0.09654497376943595,-0.019625874868846423,-0.06107902677862414
2009-10-31,0.9999999999999999,0.5140516646439793,-0.7533477592185138,0.1962160638142724,-0.21614950093402696,0.30739422502971037,-0.16287373315193324,-0.0025398462324513543,0.06854043985932472,0.009558034260572558,0.03915041192906607
2009-11-30,1.0,0.511014547911144,-0.7752164419240851,0.19550597389316113,-0.2455654773545908,0.2845705116654545,-0.1643752731777685,0.07163573721341245,0.06183014088469068,0.01919855618676023,0.04140172470182153
2009-12-31,0.9999999999999999,0.4972257791808302,-0.8937575431038761,0.16449296251414655,-0.24855851079705008,0.463405022889098,-0.1153714529980892,0.003165900369886685,0.08372936745524084,0.031152070642880322,0.014516403846932924
2010-01-31,1.0,0.504586648140433,-0.8259307091264348,0.15022697224229187,0.005703102890762358,0.21384962126515897,-0.10182412977683664,-0.10589548254131942,0.08315598947181194,-0.023238767065383612,0.09936675449951637
2010-02-28,1.0,0.5849220994633328,-1.0,0.15137887715140164,-0.10230186939583996,0.1613231258713183,-0.12331411492020578,0.15749629392951503,0.08624374701267001,0.025032015506421246,0.059219825381386454
2010-03-31,1.0,0.5637378169906431,-0.9259241890864645,0.14836812059284693,0.026187925141632387,0.18470588403052965,-0.13189583587144468,-0.03221397860258583,0.0969100810123628,0.008380646699018139,0.06174352909346201
2010-04-30,0.9999999999999999,0.5142661561643993,-0.9564894605901604,0.1680550475799797,0.06552528695049804,0.1553232000058759,-0.10573521107364892,0.03889184681123132,0.07891219068571458,0.021514368283542806,0.019736575182567852
2010-05-31,1.0,0.5113062602393209,-0.9793813391574063,0.12030991904827958,0.050447362414901366,0.03336141773139137,-0.0629093746205245,0.129298041667871,0.09498696362733897,0.049392757321878325,0.05318799172694935
2010-06-30,1.0,0.46551771258683144,-0.8762432554240001,0.13287378444559514,-0.022118124075652723,0.07446559473583417,-0.07057746582642672,0.03076679086306836,0.08676214693565387,0.07805619358818004,0.10049662217091647
2010-07-31,1.0,0.43317123682876474,-0.7388880497697741,0.0961528846996199,0.003866293762217193,0.042608620322729066,-0.0637982874396612,-0.07978918405020166,0.0678780439737996,0.08181227686757017,0.1569861648049364
2010-08-31,1.0,0.41973347157611546,-0.7052737676667818,0.0916401531805095,-0.016316617040580638,0.06863794117886655,-0.05813496606056344,-0.10231336631826349,0.07115911126284244,0.07603984353926745,0.15482819634858802
2010-09-30,1.0,0.3557378563480726,-0.6273469771243503,0.1309492926482374,0.12854047618005754,0.20130183779956773,-0.06557228417437597,-0.2668442886864774,0.050316659464995285,0.007334486100662806,0.08558294144361017
2010-10-31,0.9999999999999999,0.27968340431760585,-0.595958083576085,0.16850908857186872,0.12550434887679937,0.2278850967415983,-0.055833859248268655,-0.2647952804462399,-2.8310104730000908e-05,0.01834577744293083,0.09668781742452077
2010-11-30,1.0,0.3207562732300832,-0.6358500634777896,0.21104444912626635,0.21488205571613098,0.16389724428059718,-0.09294985867344997,-0.21893410401212252,-0.041105027365357,0.013866869210350827,0.06439216196529056
2010-12-31,1.0,0.2774263069646999,-0.5575962176255693,0.24253336991434712,0.2939194502033021,0.1591409294719135,-0.08605123190484329,-0.26931767142809565,-0.07102429408117797,-0.002314341976695668,0.013283700462119116
2011-01-31,1.0,0.1644921325142831,-0.4472858945879454,0.22000262859970543,0.07152331696998515,0.4576439945198233,-0.14338749759438546,-0.27204731282253336,-0.11613461974746075,-0.013766438094875488,0.07895969024340342
2011-02-28,0.9975864990440365,0.041183770077110465,-0.2584301224710615,0.2638235396401238,0.02957166015891112,0.5968888746800636,-0.2768811300425853,-0.28001505019021894,-0.1688054936817172,-0.048683165008153756,0.1037606177934913
2011-03-31,1.0,0.16756261186211016,-0.4508742379985476,0.2645964523535189,0.10247903174433248,0.49353798781338654,-0.21870449339413803,-0.15171334654455648,-0.16052676642887562,-0.08150368537500569,0.03514644596777522
2011-04-30,1.0,0.03726432727605853,-0.24538871153821346,0.3472763525442357,0.28175224610076793,0.35051062675779626,-0.20680469970812695,-0.3017598259554341,-0.20626296088254575,-0.0850662532244425,0.02847889862990441
2011-05-31,0.7502146735274206,0.0750240581571485,-0.4138048467066747,0.2969758831726779,0.20228616545431075,0.15345930460665386,-0.20279905469427914,-0.015147662267349907,-0.07767589511065934,-0.029214039426663466,0.26068141328741495
2011-06-30,0.5251758122063052,0.13858643788124245,-0.13747296598805805,0.3258726893121033,0.08506976137728499,0.15818542723310675,-0.5616684849103435,0.22639866833142644,-0.07870085280565278,-0.1461227372149342,0.4646762445775194
2011-07-31,0.6500271148296604,0.21101206040548445,-0.3603888717822876,0.38167247885009903,-0.14515003694500705,0.16351133267439744,-0.5346442648686884,0.4907603576053794,-0.1563383740121669,-0.03852572297617153,0.3380639262193009
2011-08-31,0.880442639790619,0.27616226129139493,-0.3999115369904406,0.3937375016866336,-0.3509182009352551,0.32525326119740566,-0.4155682402963247,0.36414561899189635,-0.21925776272818337,0.01981884860532151,0.12609560938693282
2011-09-30,0.3009875327532721,0.2000988832857484,-0.4350970131480273,0.3011425459077305,-0.6866705792905514,0.5876390400383118,-0.4462968106986588,0.7423253448442102,0.05251922541693236,-0.07390566134720873,0.457257492238241
2011-10-31,-0.9487821728729188,-0.05545168140301576,-0.3091800844270279,0.29624990411704594,-0.715912834035079,1.0,-0.01196741832588617,0.31078180764694613,0.5199548333489681,-0.08569235404903301,1.0
2011-11-30,-0.9098729503113993,-0.055857573425707414,-0.4491321987529322,0.20529878742100036,-0.7206957625067565,1.0,0.12031610031107937,0.3290688099866242,0.5136676013434727,-0.032792814065381,0.9999999999999998
2011-12-31,-0.9012971096181369,-0.012845481839208039,-0.5960022138114045,0.13174297413924982,-0.7767377075881534,0.9999999999999996,0.20185187828831117,0.376327131810177,0.5441365692364832,0.0328239593826823,0.9999999999999999
2012-01-31,-0.9532080590564626,-0.01486663400891617,-0.562692674444639,0.18455354794495937,-0.7187682917911452,1.0,0.15020974276894916,0.3427916406744975,0.5552706623678356,0.016710065544921125,0.9999999999999999
2012-02-29,-0.9999999999999997,-0.038692539174277334,-0.7024234150502074,0.1307231592492264,-0.6613035757716631,0.7637064268783774,0.1736971646146099,0.6992350447252546,0.5353100760713188,0.09974765845736056,0.9999999999999998
2012-03-31,-1.0,-0.22877219120431702,-0.5929394950930656,0.22998145970847544,-0.7364124461452727,0.681350866950814,0.08791619586174533,0.9999999999999997,0.4353200469900755,0.12355556293154545,0.9999999999999999
2012-04-30,-1.0,-0.19667512710869373,-0.6820579024360353,0.18435792770379192,-1.0,1.0,0.1275562566371813,1.0,0.4393139089659607,0.1275049362377947,0.9999999999999999
2012-05-31,-0.9650178081022199,-0.2619694139070021,-0.7399982019972308,0.1807742186906329,-0.8489149503272315,0.9999999999999996,0.03524335187653187,0.9660139788124548,0.4724880804717631,0.16138074448230225,0.9999999999999998
2012-06-30,-0.9999999999999999,-0.3121797221733185,-0.5594039917563779,0.23301070624647333,-0.5112351223440323,0.5134582561627375,0.026780032780905266,0.9429516514694654,0.4731156191072268,0.1935025705069202,1.0
2012-07-31,-0.9744633286807285,-0.2773548922673501,-0.6162109351792031,0.2160814839512345,-0.5735826704921376,0.5271808007189244,0.03771466010076746,1.0,0.45937365585036055,0.20126122599813273,0.9999999999999997
2012-08-31,-1.0,-0.35770541599395517,-0.5756604357640556,0.2540144583771543,-0.603028512278867,0.6566015647289676,0.0245464050956067,1.0,0.446171755527683,0.15506018030746616,1.0
2012-09-30,-0.9999999999999993,-0.32172102243793715,-0.6081925300055587,0.2795772160976212,-0.35022398782565495,0.4176111783853004,0.038136639634995174,0.9999999999999996,0.45325984106674194,0.09155266508449275,0.9999999999999996
2012-10-31,-1.0,-0.31673974894252693,-0.35477606970478465,0.3031782986262082,-0.2820173084392107,0.5190847007500012,-0.13058653538275722,0.5708002547822859,0.5009237973491608,0.1901326109616237,0.9999999999999999
2012-11-30,-0.9999999999999998,-0.4056518444282384,-0.20698464636563302,0.26674581014897675,-0.18456880926261246,0.7194588730630044,-0.09908719737682534,0.19602718714921033,0.5522610455198824,0.16179958155223578,0.9999999999999996
2012-12-31,-0.9999999999999998,-0.28368453357313855,-0.10596019038642726,0.3427379295568136,-0.19383193047735153,0.6584989820584067,-0.31726743776617183,0.1525204917725726,0.5631515785532567,0.18383511026203947,0.9999999999999998
2013-01-31,-1.0,-0.3134133429653791,-0.0741914459511723,0.2643758774934913,-0.35703022736143186,0.6765458888934984,-0.17013671145841525,0.29351946633733017,0.5902557039576617,0.24216377575080114,0.8479110153036162
2013-02-28,-1.0,-0.27113138584055746,-0.16514925316955015,0.31546154965105255,-0.3533952723589778,0.7117465173625934,-0.337471497808333,0.3726549374486109,0.5296317372710493,0.19765266744411297,1.0
2013-03-31,-1.0,-0.31640106999187523,-0.15746717380964415,0.3164602583430532,-0.35500172621058307,0.759056197252344,-0.317878827889206,0.3686245056288347,0.5249786963457957,0.17762914033128127,1.0
2013-04-30,-1.0,-0.3531592991025459,-0.04910466119588165,0.24651328327998925,-0.25790913915972474,0.6958143380845478,-0.2859737690403976,0.4147441596504112,0.6406885075537899,0.1381818698381758,0.8102047100916371
2013-05-31,-0.9999999999999991,-0.4218896362671021,-0.07329267231426245,0.22394539443736966,-0.4143847571416927,0.6313314703758972,-0.3064630122697425,0.7986818814488685,0.46582819723903457,0.09624313449162844,1.0
2013-06-30,-1.0,-0.28843038568561674,-0.16642818136198695,0.1911451909572024,-0.28864959947596897,0.4713276479890308,-0.3858737624375044,1.0,0.5138359563659923,0.055126849517766585,0.8979462841310849
2013-07-31,-0.9999999999999993,-0.2774795321108975,-0.21678699744778704,0.2763317881401639,-0.29487563876705086,0.46422875912524936,-0.4567136099138876,0.9999999999999996,0.47524921426438554,0.03004601670982413,0.9999999999999998
2013-08-31,-0.9147092345861021,-0.333248450747704,-0.1415043305047144,0.26138190796833627,0.08754294179695989,0.1078642981286007,-0.35371942517875066,0.9533577347854075,0.457110718183067,-0.12407615984510063,1.0
2013-09-30,-0.992148480540765,-0.33983946220832956,0.015746004821854225,0.2098207506748462,0.20917532461501798,0.12325943610115073,-0.3495817238086534,0.7431399745083681,0.5454703976810396,-0.16504222184452919,1.0
2013-10-31,-0.9928435498975566,-0.2508101186570395,-0.006785175515873725,0.18200714703665632,0.06397377628903514,0.23815626955244132,-0.35560642893859606,0.8543199786681305,0.6224746994643049,-0.23195339219849848,0.8770667941969963
2013-11-30,-0.9999999999999996,-0.2386224318134901,0.041255866409652994,0.17931673836594095,0.15554050089350854,-0.0049987903363091675,-0.39893972903631925,0.961770115208618,0.5964425850031858,-0.25661298778498043,0.9648481330901924
2013-12-31,-0.9915984186316954,-0.23641954882466065,0.10073175446600685,0.20943799966864574,-0.08895179804462873,0.17876119901597226,-0.460370722534926,0.991320522255273,0.5731272608118755,-0.27603824818186223,0.9999999999999998
2014-01-31,-0.9999999999999999,-0.24879763011130993,0.020456200410441345,0.2603558546714546,0.32983193946532885,0.017007093650225964,-0.4879938176132315,0.6680181284751723,0.6376087303036599,-0.19648649925174166,1.0
2014-02-28,-1.0,-0.2954524790606768,0.021246189849536242,0.25433636319594677,0.3829002870639489,0.00894065025695414,-0.4738383796680231,0.662862730043854,0.6317223020707838,-0.18506045422879747,0.9923427904764738
2014-03-31,-0.9999999999999992,-0.33630263414172235,0.17307083242458088,0.2616792835880953,0.09836037198894873,-0.06240557215177014,-0.5087838541661553,0.9697618457913814,0.6033787578507355,-0.1327960494631589,0.9340370182790643
2014-04-30,-1.0,-0.3415618092563651,0.20287666905169732,0.22922072264722537,-0.1590676182991127,0.09557434714303639,-0.48125728911999055,1.0,0.5682267651457996,-0.11401178731229088,1.0
2014-05-31,-1.0,-0.3300521784629375,0.2150106822817196,0.1834164595390946,-0.101259858395447,0.08389023088600572,-0.4159966128857306,0.9999999999999999,0.6241894664050794,-0.14587184415646634,0.8866736547886823
2014-06-30,-0.9999999999999998,-0.3482703040804595,0.13541982853221216,0.15779865460240128,0.10782361422755049,0.03796347544441948,-0.32812332462233085,0.9999999999999998,0.7200816416637265,-0.09850654222080393,0.6158129564532844
2014-07-31,-0.8354934666424204,-0.2179476170435773,0.181849884246569,0.1273553885295203,-0.20273995020996355,0.3994090708537008,-0.41855389203582744,1.0,0.7430112836970921,-0.1548904839660029,0.3779997825709091
2014-08-31,-0.9316298570165122,-0.2245603827738826,0.16455295244592763,0.0824934139386565,-0.2606858528513745,0.24894360898080134,-0.4505081639086988,0.9999999999999998,0.5052141763110986,-0.13381989512601572,1.0
2014-09-30,-0.9999999999999999,-0.34326619766398536,0.3923880011915591,0.12178652905822063,-0.34292538878389484,0.40919587758271203,-0.6643332015614796,1.0,0.6435732492101377,-0.21641886903326996,1.0
2014-10-31,-0.47949226592906924,-0.3481142116914756,0.2667476624219191,0.11587243743235785,-0.19827594341012922,0.2848589892907603,-0.6312619025677821,1.0,0.4785090079691109,-0.003859813563038038,0.5150160400473462
2014-11-30,-1.0,-0.3206153616317343,0.29747102201998865,0.07292032198643937,-0.12045907254858658,0.16585237383449924,-0.6083707043437925,1.0,0.6258636806959195,-0.11266226001273331,1.0
2014-12-31,-0.9915080416788019,-0.29409949450409556,0.22962151821234053,-0.030543358070811186,-0.16737136792328564,0.19946612400773164,-0.43022281205887974,1.0,0.5924346038837481,-0.10777717186794661,1.0
2015-01-31,-0.9994986218244746,-0.4511493021968832,0.46486999272177426,-0.022028174557493146,-0.21983527574740291,0.15299458890185638,-0.46040467507419314,0.9999999999999999,0.6891169344041104,-0.15406546662729467,1.0
2015-02-28,-0.9737386333351931,-0.493825011085249,0.49544767660312194,-0.02477927725883517,-0.11521264105310669,0.010592286056283219,-0.44954265326679865,1.0,0.6793376103667099,-0.12827935702693366,1.0
2015-03-31,-0.2833567733168397,-0.5420682651231964,0.5701299019274562,-0.0004508203304537939,-0.1868147075788741,0.2264172878065774,-0.49085106166214004,0.8194980386472396,0.4867159574301639,-0.08195719259961998,0.4827376347996871
2015-04-30,-0.9839364624141836,-0.29939677322789854,0.48074027801394753,-0.031621808721615935,-0.1887873485707705,0.053421474896499614,-0.46513042400489574,1.0,0.7365863146432439,-0.30187525061432646,0.9999999999999999
2015-05-31,-0.7856659123526964,-0.3370144333596227,0.5163862658089462,0.03042008575074137,-0.33326225980517477,0.11754550381260209,-0.5016874823253967,0.9999999999999994,0.4443539216185779,-0.15107568914797576,0.9999999999999994
2015-06-30,-0.3490138709046017,-0.3758906877282894,0.3112892336297983,-0.10250952823188349,-0.26613299624865283,0.3555853582674247,-0.3078731203781113,0.7495728361163183,0.37331050191403137,-0.2154276239536423,0.8270898975176082
2015-07-31,0.2640720778692656,-0.1865225213000684,0.34500286150266984,-0.03750770471980817,-0.023682805112554012,0.23260500205472703,-0.4313485126704749,0.4939904113892298,0.1893360660500339,-0.2476674815699538,0.4017226065069333
2015-08-31,0.10088985113942218,-0.2627381561355413,0.18859147912324287,-0.010271671115517439,-0.23611472562482683,0.5280264005890279,-0.46879001135184767,0.3294592746817079,0.08990329159484432,-0.2589557329005119,1.0
2015-09-30,0.5187928930503681,-0.23776598863109097,-0.051056680091084654,-0.08366799759064171,-0.6443049165109391,1.0,-0.44766658568758544,0.2088320992815644,-0.16764335035618094,-0.0826586137096043,0.9871391402451947
2015-10-31,0.465272091400775,-0.3188775770506557,0.05166543573218969,-0.10958586471412769,0.09625593789814628,0.22817392060891875,-0.28614459761544886,0.4313512552007262,0.2253445969863247,-0.1855763258516268,0.4021211274047785
2015-11-30,0.5205924369215169,-0.26184877106577925,0.07925198640640695,-0.12282066624909607,-0.027218517956507416,0.18721026149417588,-0.33119167752790707,0.5073663644839949,0.1671686587333535,-0.17107720447165092,0.45256712923149267
2015-12-31,0.6513309731848324,-0.3556334056445344,-0.13056692328634453,-0.031893656678039145,-0.2948663352389663,0.2685339231019716,-0.28038814790392136,0.9050092371326958,0.03289784717714732,-0.07800119608309318,0.3135776842382519
2016-01-31,0.5360740837469382,-0.3843153049540094,0.031215006075402917,0.007583081078041828,-0.27869574184834917,0.19855088856012731,-0.3418466323409791,0.8722007733352422,0.25339064009183293,-0.25428021550150504,0.36012342175725753
2016-02-29,0.5513971153135642,-0.36594863177921644,-0.11627585663883114,0.012722760287247252,-0.3593213491126602,0.2991542290403215,-0.3049006288549647,0.983586332859559,0.23964255239570345,-0.23168084509507827,0.2916243215843553
2016-03-31,0.5363776606811893,-0.19105388287354794,-0.3142671699755042,0.00704744074675801,-0.44966799941700125,0.40371881169418594,-0.32066927715324467,0.9923700384280973,0.10390073611373993,-0.08608579701776742,0.3183294387730949
2016-04-30,0.39480159220880306,-0.26885491115801713,-0.3539054986452126,0.03266844659195947,-0.4298473575280547,0.4589362856052662,-0.2571542955363833,1.0,0.10972680773663537,-0.12304118734140898,0.4366701180664123
2016-05-31,0.3456110636574669,-0.3103737100577268,-0.3422733538191608,-0.018328696083513,-0.44921955764592925,0.5258339905324055,-0.20441888034064593,1.0,0.20111326967108356,-0.13252998859625537,0.3845858626822751
2016-06-30,0.06867693827913492,-0.20621399658958173,-0.503268829472239,0.041786451466513656,-0.684016781059485,0.9167392177455923,-0.1512759138520915,0.9765882978611908,0.33105023863066224,-0.17049215594216338,0.3804265329324669
2016-07-31,0.10506372784571398,-0.13570395152113762,-0.4459598874546553,0.04477847348192159,-0.32473979490789956,0.3742601548603144,-0.21166056181176426,1.0,0.40369050258790273,-0.1284029592094801,0.3186742961290837
2016-08-31,-0.21118582348997286,-0.07596505434502311,-0.61189176390713,-0.11874188132312154,-0.7328987268637708,1.0,-0.22120742112363545,0.7176443195036438,0.38100364302701867,-0.12532327306350638,0.9985659815854976
2016-09-30,-0.13903089980024882,-0.0715163357800764,-0.8572090686208275,-0.03411430471486747,-0.49418601334289886,0.5560589952052033,-0.18597955549272258,0.9999999999999999,0.2840644878167497,-0.05808730527031113,0.9999999999999998
2016-10-31,-0.007177572601146848,-0.06334921018544029,-0.9820228583629167,-0.06355391824524577,-0.8074964676374559,1.0,-0.1796822616493128,0.9999999999999998,0.190659715881882,-0.08737742720036357,0.9999999999999997
2016-11-30,0.08772493022501038,-0.12648876440378942,-0.9999999999999998,-0.03125473759097858,-0.8533696969529554,1.0,-0.15076648676528479,1.0,0.000950578453452373,0.07320417703454472,1.0
2016-12-31,0.12443172298868699,-0.14818550573415762,-1.0,-0.0055680301547239765,-0.8798447815337328,1.0,-0.1438195826809502,1.0,-0.09162354912251071,0.14460972623738746,1.0
2017-01-31,0.10779979066190147,-0.03408306231173249,-0.92876165314699,0.08673812720704477,-0.8960643314609998,0.9999999999999999,-0.26596395415643614,0.9999999999999999,-0.16846572641293217,0.09880080962014452,1.0
2017-02-28,0.28693426501999203,0.11130350352676253,-1.0,-0.01934903233909887,-0.5683842835185461,0.5499117492351797,-0.31363278337200035,1.0,-0.0535904095677732,0.006806991015484546,0.9999999999999999
2017-03-31,0.3966413717437207,0.14665710574431853,-0.9369446707829288,0.02307747344285093,-0.5120322158552324,0.4550475423205299,-0.37476383579044203,0.9686040787282143,-0.12232046852583438,-0.043966381025197156,1.0
2017-04-30,0.41038048962392276,0.16462112865443,-0.8343585898862947,0.060630628956328474,-0.35326830909344253,0.39907963481174635,-0.45311934377358004,0.8300221675305869,-0.10155315540339678,-0.12243465142030023,0.9999999999999997
2017-05-31,0.38959902847925204,0.14802187300179503,-0.7491927936027831,0.08083575515234545,-0.3765330004344017,0.3855497937341161,-0.47867622718512687,0.8411769819851781,-0.09997345375867639,-0.14080795737169863,1.0
2017-06-30,0.4236421546724298,0.20122739104699322,-0.7503687300753658,-0.04779015021205296,-0.2881202235343157,0.2798212673164647,-0.465481779836902,0.7799214053935785,0.029215698147794122,-0.1620670329186238,1.0
2017-07-31,0.33833130265663697,0.1941763052678872,-0.7565140159285596,0.03295915009818381,-0.3017646023958573,0.3028588939225063,-0.4668741431545616,0.838591406109885,-0.030943302221555124,-0.15082099435456583,1.0
2017-08-31,0.33311839647427616,0.25539277733111254,-0.8202161068661123,0.03040240817396634,-0.23078818118631997,0.15076816950518385,-0.49839315690419067,0.944384975884233,0.023104810091365873,-0.18777409250351465,1.0
2017-09-30,0.17242623878120011,0.24022719265026768,-0.7180545495541049,0.06679496680438603,-0.06717521155346844,0.18058648337026226,-0.485210375504768,0.7329889502501697,0.06645692019317984,-0.18904061543712433,1.0
2017-10-31,0.1721820695551855,0.21009071610463784,-0.6383226899306534,0.0799034524818839,-0.3500140841148743,0.5539401319177271,-0.4417651326370576,0.9204724578845607,0.21660075049530356,-0.4147979405721569,0.6917102688154436
2017-11-30,0.26771017349161264,0.18208260026911982,-0.6181631850047902,0.10046406047157122,-0.30565826549136516,0.5381172430723334,-0.4786873578555977,0.8097240683567942,0.0848721662718426,-0.35019076206578653,0.7697292584842657
2017-12-31,0.11121027265033193,0.280128018768776,-0.7416333126832451,0.09168045766601714,-0.31059715569366264,0.6075955063313626,-0.4947058704501477,0.9609008655515018,0.28831737200065943,-0.48257898769840835,0.6896828335568147
2018-01-31,0.5113062359550411,0.44997687496695155,-1.0,-0.0700218046419934,-0.2531398384557311,0.4680616375697137,-0.5211580326413916,1.0,0.06185555669294972,-0.5429797148294884,0.8960990853839484
2018-02-28,0.535354145852283,0.44536538417593413,-1.0,-0.0225051162834542,-0.17117992867698476,0.34041675656099823,-0.5855223642866647,1.0,0.02576056778995101,-0.5676894451320629,1.0
2018-03-31,0.2722181690763185,0.3991872898309086,-1.0,-0.0003763939516933458,-0.14004789480392946,0.3070725858404331,-0.47721646565931125,1.0,0.12192170328833721,-0.4827589936210633,1.0
2018-04-30,0.2089668887582017,0.08490924137178352,-0.6859641526980881,0.17483761203807124,0.06578136821156556,0.13322833732126013,-0.44259247565011123,1.0,0.1120884676623679,-0.34145056888136227,0.6901952818663115
2018-05-31,0.06161572677764738,0.18599437132970734,-0.9848940949275836,0.05428031652244643,0.25319739425933074,0.09894619162729537,-0.30676996974736065,1.0,0.3744816369095014,-0.3563980639670973,0.619546491216113
2018-06-30,-0.21752111053253212,0.19308847556749664,-0.9762071772989374,-0.007124736368215036,0.019858056507108472,0.2087418586784863,-0.39247145171153075,1.0,0.42294068368350896,-0.2513045985253854,1.0
2018-07-31,-0.23991626899472349,0.2266104308242959,-0.9999999999999999,0.08066184571750834,0.1400939022634664,0.05848776231093514,-0.33825297641960456,1.0,0.29677809332246624,-0.22446278902434372,0.9999999999999997
2018-08-31,-0.09910033198597573,0.37400449230214866,-0.9892917699835105,-0.14767781768006205,0.08495234234190624,0.12370521450527859,-0.20311462167830896,1.0,0.5020484938423039,-0.28550937218304795,0.6399833705192678
2018-09-30,-0.870438373608315,0.11505926936526734,-0.5772760917563456,-0.040376695993085666,0.1605366593344362,0.024820296153368775,-0.10267013628283424,1.0,0.667848681077097,-0.3775036082895887,1.0
2018-10-31,-0.05683332108145802,0.12159189735019253,-0.8096042466449216,0.3166004760740859,0.054423351556108696,-0.0027761961513661708,-0.35838428671148237,1.0,-0.2664895551773029,0.0014718807861437227,1.0
2018-11-30,-0.07790897040896261,0.14794942053564333,-0.8281859320753611,0.3443325930396173,-0.15359369006357157,0.1430821262691659,-0.2946180737032553,1.0,-0.3788469185209742,0.0977894449276979,1.0
2018-12-31,-0.19319557614145552,0.36376505576691215,-0.9999999999999998,0.2210672214001265,0.19893603758185938,-0.16240849541634048,-0.28753221715715377,0.9999999999999998,0.22755577588251877,-0.36818780191646683,0.9999999999999998
2019-01-31,0.22770346782351386,0.48926326092461725,-1.0,0.09703100750035905,0.34147156150080116,-0.4550370585200916,-0.35525240768425187,1.0,-0.09838265361108979,-0.2467971779338582,1.0
2019-02-28,0.14370143857266238,0.5169444189610436,-1.0,-0.021261008741998016,0.6482825271194648,-0.7748497266013467,-0.22679118239040405,1.0,0.02753148189075747,-0.31355794881017945,1.0
2019-03-31,-0.16750348680784488,0.48912608097717175,-0.9971933387875468,-0.12271724235207837,0.6036888024200014,-0.6262198908969651,-0.17355632006147298,1.0,0.41615069627196255,-0.421775300763228,1.0
2019-04-30,0.26115821180881693,0.4416139193703343,-0.9207783669105488,-0.06535413876712892,0.16097319433658316,-0.25040822411056723,-0.5561230950180813,0.9999999999999998,0.06404000431566097,-0.13512150502506892,1.0
2019-05-31,0.32759057312735734,0.5074410530700184,-0.9999999999999998,-0.02850927896811226,0.6140004263857137,-0.7676139549731852,-0.6204133774644655,0.9999999999999999,0.2141545609327243,-0.24665000211005134,1.0
2019-06-30,0.37806577980259903,0.06290981812989445,-0.298925581785734,0.004682008660774358,0.1598039720617044,-0.3960320346501259,-0.7457732388712358,1.0,0.03277914172737063,-0.1975098650752477,1.0
2019-07-31,0.5418105385267563,0.2535088218306674,-0.6507319309638221,0.1540633983548859,0.603494037612877,-0.686193631523653,-0.9224013946118205,1.0,-0.07567945592132604,-0.21787038330456543,1.0
2019-08-31,0.22474553179638013,-0.016657624787247756,-0.2767661350824747,0.18318975166332657,0.16779013448001265,-0.3134724620215443,-0.9153762106024724,0.9999999999999999,0.06893738860469967,-0.12239037405068016,1.0
2019-09-30,0.41475235938099864,-0.16339676182451848,-0.07559168708698343,0.0757588665061304,-0.2189504431859142,0.029090804889879602,-0.9939537024154733,0.9999999999999998,-0.03967745408061319,-0.02803198218350575,1.0
2019-10-31,0.47583268876564133,-0.18083314861460006,0.06265661486527546,0.3726499585839502,0.4565503033177963,-0.7257170771579309,-1.0,0.9999999999999998,-0.1812259850341023,0.17768487170538358,0.5424017735685867
2019-11-30,0.21634007845793796,-0.25252938472421643,0.4223366912185381,0.3037401083230477,-0.015242756710725463,-0.568103698539843,-0.9165598375996956,1.0,-0.04338253936194879,0.25855242339337847,0.5948489155435269
2019-12-31,0.24833566909204183,0.023270961158564616,0.01568447799992062,0.42706501189059737,0.10633007272442627,-0.6458897180821824,-0.9041661415930244,1.0,-0.18313082027623143,0.23675022812450905,0.6757502589613784
2020-01-31,0.3553988266643139,0.06965693655682081,-0.03755920883929283,0.295680115799085,0.17185500397407832,-0.7806534411643279,-0.7962524763773895,1.0,-0.2038482253595601,0.24932784403840633,0.6763946247078658
2020-02-29,0.17951967452268527,0.12476984547699357,0.009312756747395028,0.20722912983545677,0.01215954243606698,-0.17882278088450823,-0.5893666172087613,0.7712199806263704,0.32770056529190367,-0.22097111278041132,0.3572490159368093
2020-03-31,0.31494245681054034,0.3374759640408849,-0.6674921070979095,0.1443808314747473,0.3049671764996357,-0.6630708278765437,-0.720291678838708,0.9999999999999999,0.1317023163722214,-0.09144974888693329,0.9088356175020648
2020-04-30,0.3185042191485855,0.278640009991765,-0.6521634973379331,0.09347432155717827,0.316161655073923,-0.7389443291716148,-0.5159536190786487,0.9999999999999999,0.18249943476643274,-0.10748262246837215,0.8252644275186845
2020-05-31,0.3511925328422815,-0.17380438116500946,-0.32032930446006097,0.08104219175800544,0.02654828686858708,-0.17820630061925227,-0.2428430439180957,1.0,0.32723173442837905,-0.3237118382921532,0.45288012255731863
2020-06-30,0.20444702013568827,0.14769046415192746,-0.7319620409935822,0.3017744319556534,0.36664058446031517,-0.6026958874497245,-0.20838262272512809,1.0,0.2573537019185276,-0.21091696516642047,0.4760513137127434
2020-07-31,0.32515868846437124,0.02987575921417087,-0.5735527786471375,0.24695586595866018,0.4750151600359637,-0.7594496739403942,-0.21210748644878455,1.0,0.20484411084853424,-0.19141390339556782,0.4546742579101839
2020-08-31,0.3244223522712663,-0.07412702363877643,-0.5544869468336366,0.26487751049021546,0.4384464615345699,-0.5965177099605407,-0.033953471985940176,1.0,0.29081313561240474,-0.25979895655376056,0.20032464906419795
2020-09-30,0.3062811402946557,0.06923664661054438,-0.6149656543642257,0.15716717373445704,0.12621599279231033,-0.3744085038207546,-0.0885818932445764,1.0,0.33805819042269747,-0.23023176542784954,0.3112286730027411
2020-10-31,0.6693997232549838,0.22989005487444145,-0.9600693894285356,0.16257542638717123,0.40445951465295754,-0.6342254132863818,-0.2565069009669959,0.9999999999999999,0.022048758124850205,-0.21736796192103564,0.5797961883085447
2020-11-30,0.37208381234684196,0.15698424673264547,-0.6959859342781809,0.07102577117832509,0.8113362477930323,-1.0,-0.20883816667920607,1.0,0.29084053098268,-0.2999826009379487,0.5025360928618108
2020-12-31,0.5076809200357791,0.08244249006202423,-0.5813406139281914,0.19993031706104525,0.8862597983789602,-0.9999999999999997,-0.2556029114520624,0.9163523105810669,0.1700718862953171,-0.26655224221327406,0.3407580451793348
2021-01-31,0.6279649052040182,-0.006000962309750964,-0.8205039948116708,-0.0011728413409923082,0.9508282938973162,-0.6129747949725186,-0.07853973350672762,0.5746571969753296,0.3453564180764798,-0.33700230051840996,0.3573878133069265
2021-02-28,0.8121014781934867,0.07733460137965255,-0.8743254347127473,0.019426411727185205,0.9402251278109025,-0.9999999999999998,0.1044408429840151,0.9597538858464202,0.21741714905672682,-0.09761941906854286,-0.15875464321709898
2021-03-31,1.0,-0.00538830581731403,-0.6528004061428389,0.13406283982518077,0.6567663350031884,-0.7661079516871356,-0.1691972674388336,1.0,-0.09753718643684815,-0.023861970038089462,-0.07593608726730935
2021-04-30,0.9546084124381977,0.18482530651280127,-0.9207802850081935,-0.011011375430238243,0.24757464321566366,-0.22390369151275616,0.005170307101730961,1.0,0.13597291822969582,-0.07591005500083627,-0.29654618054606535
2021-05-31,0.820458752791259,0.1289972560710454,-0.6071091866467389,0.1667898936290349,0.19449685642925105,-0.3438797712511744,-0.054825026298918764,0.9999999999999998,0.06055673504761325,-0.024796010906747587,-0.34068949886462396
2021-06-30,0.46366169036688676,0.08225371860266627,-0.5266992022846699,0.10132193955960023,0.06147479284422617,-0.27917638603180583,0.11562852321545157,1.0,0.24799339027695969,-0.12011179609614127,-0.1463466704531736
2021-07-31,0.9114997216907871,-0.00967155774057544,-0.5946114480810325,0.18557438826312736,0.1528614394299627,-0.2657361028777255,0.1701567427336862,1.0,0.11334673878154641,-0.04232783427478272,-0.6210920879249937
2021-08-31,0.8519730310579422,0.07476299683708376,-0.573296631954061,0.20281102480449256,0.1289699707544189,-0.2751154265214424,0.1331997951031492,1.0,0.11383454247643118,-0.06408724664053199,-0.5930520559174821
2021-09-30,1.0,-0.08625090280334909,-0.7525902131450364,0.16836930616329493,0.35251381709106777,-0.33234251809411686,0.3739834829384876,0.9810730494087371,0.17245384147072929,-0.115887612412075,-0.7613222506177392
2021-10-31,0.7582052300138148,0.038946236496128564,-0.5168498638344841,0.011575656022526836,0.1421148162500948,0.2418421374475242,0.4395715450738047,0.6750934030917245,0.5945207386986978,-0.38501989925983193,-1.0
2021-11-30,0.1641695225825593,-0.19001685508055816,-0.2828501951074627,0.05726691828028242,0.21721681872098716,-0.004144252672156313,0.3952734325059058,0.727518582280982,0.6513016545904924,-0.526890168956962,-0.2088454571440701
2021-12-31,0.6045001376606708,-0.18918150126828145,-0.5453012209949109,0.007160724285403846,0.18681472746748362,-0.09648038981740699,0.4169586444384961,0.888093124702365,0.3541470127042263,-0.2015648018204685,-0.4251464573575779
2022-01-31,0.22443504240265394,-0.3020455914828456,-0.19845891103790947,-0.03001980923672078,0.020042114950661383,0.06153650103048246,0.48247850508545687,0.7941077344110288,0.5606608980051926,-0.4623812487307647,-0.15035523539723583
2022-02-28,0.5967815304721652,-0.10495418413709001,-0.4513449633856502,-0.03087032975682292,-0.09496626710825554,0.1174196784242346,0.49751006665577274,0.9178006803588781,0.43310332418052927,-0.37422246800824316,-0.506257067695518
2022-03-31,0.5985492931673436,-0.19147935572593638,-0.41544780702760775,0.010950727098351985,0.03759392502680811,-0.042601125444697754,0.48925927972004707,0.9341198529975149,0.3638181322907405,-0.3677900085662665,-0.4169729135362979
2022-04-30,1.0,-0.21254971496274308,-0.5164034459439822,0.09828166117853823,0.09161991913523479,0.006485230154832046,0.5691125494913574,0.6606547476363267,0.1743119766559674,-0.17586778551618618,-0.6956451378293449
2022-05-31,0.9999999999999998,-0.19318226639584302,-0.46097203296939493,0.03639031796312728,-0.09313727826820362,0.19433271418078538,0.5604353167112881,0.7988186199537454,0.1369711233898542,-0.3764386370032122,-0.6032178775621462
2022-06-30,0.9999999999999999,-0.09725235481548648,-0.5691771868768168,0.09687559373644432,0.029249735583605167,-0.02307201210854909,0.4893633716253367,0.8264806584289102,0.0952220958452675,-0.2824097029617082,-0.565280198457003
2022-07-31,1.0,-0.173499778837651,-0.4584360243594101,0.11008798129328044,-0.02693149197177121,0.021726928669932945,0.463547578289612,0.7929819460757043,0.04138759732941592,-0.297026574669647,-0.4738381618194664
2022-08-31,0.9999999999999999,-0.03233695504428135,-0.5916912389803833,0.04905515087626296,-0.01865871196700832,0.04183932557949603,0.4618167736700656,0.8677304020140203,0.030166723452280216,-0.3985560958605865,-0.40936537373986503
2022-09-30,0.9999999999999998,-0.19852988968668275,-0.5984260146816405,0.18735521882754555,0.16746925872898277,-0.14652897187516437,0.35420921275636097,0.9073296297902269,-0.15292701763894437,-0.4858878658715724,-0.03406356034911174
2022-10-31,1.0,-0.2326330580009552,-0.6016145683588925,0.15045231568572517,0.10328928819302355,-0.018056532579269202,0.36077358873818516,0.841009283801495,-0.11921384228146316,-0.4788466840382773,-0.005159791159571446
2022-11-30,1.0,-0.16263691825665236,-0.24487424997357363,0.18359187987539527,-0.1985838958132445,0.18332457956835263,0.33258039707433984,0.7888577871998586,-0.14692725337851584,-0.5435080457095742,-0.191824280586386
2022-12-31,1.0,-0.2521750355349918,-0.10633840102347988,0.2392739821461165,-0.21365566421364712,0.184026879792644,0.30680099831502194,0.6913921411350751,-0.19318616170629457,-0.5399070512105659,-0.11623168769987817
2023-01-31,1.0,-0.11824879235740371,-0.20697284849228037,0.2460625150896627,-0.1698722528030226,0.3812183834219771,0.32817378414743364,0.4839144081544268,-0.11560791454989829,-0.49611236277466364,-0.3325549198362318
2023-02-28,0.9999999999999999,-0.22480487345491226,0.017734962103353607,0.27109814215997563,-0.1782001667926985,0.25878261014161785,0.23096257365227651,0.5512215155058493,-0.2619794381728854,-0.4803578555489921,-0.1844574695935845
2023-03-31,1.0,0.06920549475423432,-0.15752423393826656,0.13791193346118064,-0.1794724986028401,0.22596836035860288,0.20704980948980733,0.2749562583642684,-0.5960445842192438,-0.16427548907695258,0.18222494940920952
2023-04-30,1.0,0.010737817993820363,-0.08320400437294598,0.1808996303253545,-0.20486824824216018,0.20920376165094406,0.18154210123394923,0.3293089853198351,-0.6286445899003543,-0.16919152956939645,0.17421607556095373
2023-05-31,0.9999999999999999,0.09581077565763478,-0.1317879702080516,0.15630056225034145,-0.17525362506684672,0.03825804404018689,0.1375584947550939,0.4947035647306184,-0.743887415046418,-0.186728595164639,0.31502616405208006
2023-06-30,0.9999999999999999,0.050008946415044005,-0.22888013101412127,0.1684498674033731,-0.2993277356297831,0.30964831236480855,0.12299640574941205,0.5374194724010043,-0.6628544101313713,-0.23794145888283422,0.24048073132446787
2023-07-31,0.9999999999999999,0.07346467209590174,-0.23625303154167654,0.17826442018797986,-0.27323720407320334,0.28803256723011994,0.12778271462776059,0.5383770973624201,-0.6845351700766805,-0.23878534948786093,0.22688928367523917
2023-08-31,0.8724232835702764,0.015118049746430112,-0.07759584658394482,0.1275181818329115,-0.3617831882704017,0.20257677682614256,0.10358667610031863,0.5876824107543938,-0.7158033538601041,-0.2622442517554506,0.5085212616394281
2023-09-30,1.0,0.09101650312996615,-0.30466120263843854,0.24288402597224376,-0.28506332436010867,0.21393913016107288,0.11081664533664558,0.7683569547356063,-0.8011169159197644,-0.29493657274416485,0.2587647563269414
2023-10-31,1.0,0.017745478739536583,-0.1586890917929686,0.22217103110918424,-0.23264233311504445,0.09702680492920453,0.12269742667005654,0.7742094981209513,-0.742631560020299,-0.30982833392760883,0.2099410792869879
2023-11-30,1.0,0.13712949846197386,-0.4818870407622066,0.27454686263915223,-0.43853116645623624,0.2558183197141703,0.06762603764506106,0.9090277217880358,-0.7706943638469669,-0.20511696820021574,0.25208109901723214
2023-12-31,1.0,-0.08415875670241797,-0.28184633729477415,0.2716719188684322,-0.22120514768698327,0.17479968879531327,0.07006140018146548,0.6642082653173074,-0.660273846109989,-0.10580864296634666,0.1725514575979926
2024-01-31,1.0,-0.16544085155099622,-0.22028979396245202,0.26964529708662394,-0.38835114353450423,0.3391101990032539,0.03800290224327479,0.71749080717918,-0.5429045731335462,-0.18672413255700906,0.13946128922617526
2024-02-29,0.6062934735799979,-0.16517535358921856,-0.1360867634437313,0.3017725913205834,-0.335676696135377,0.10419500856811506,-0.02665770107094943,0.7883234015022161,-0.44062568968963245,-0.22209533371335644,0.5257330626713528
2024-03-31,0.5872546052394573,-0.13444849648644328,-0.28097311214014636,0.38493310435437766,-0.30244176537728845,0.1302599302241733,-0.021279215387280802,0.8202802535232208,-0.4193035897595522,-0.21013495596414944,0.44585324177363145
2024-04-30,0.5417185707734301,-0.12194198839918323,-0.22207466960770697,0.4000042433079685,-0.26327271280057507,0.07239418455106124,-0.04804683742577809,0.794897480303953,-0.4378762671350077,-0.24940674144417652,0.5336047378760145
2024-05-31,0.620922692026425,-0.1218551390218635,-0.24949303701159536,0.3625866860158714,-0.26579118136531227,0.08184540795396128,-0.04246635595124621,0.8578231751596582,-0.4493116883439804,-0.259365763152753,0.46510520369083486
2024-06-30,1.0,-0.08400933690519674,-0.3273850420168505,0.4672480239168878,-0.5607077858370523,0.6726515360971022,-0.12510828830605722,0.7482928573673979,-0.6036232021935054,-0.3186601711129718,0.13130140899024625
2024-07-31,0.7369850871039585,-0.056613375183188215,-0.2812421558337433,0.5979565984689743,-0.10933214834679322,0.14672351928297891,-0.17914040913610557,0.6445751688735153,-0.6869465852527373,-0.20303341746048142,0.3900677174836219
2024-08-31,0.5910251169119644,-0.1723736883634808,-0.04729703013197294,0.5554106599110228,-0.1482401022114819,0.09384503909441193,-0.178323779570616,0.5934309284579115,-0.5948653194359583,-0.23627656310809872,0.5436647384462981
2024-09-30,1.0,-0.03642875929739964,-0.3103663825337207,0.6468877929864274,-0.3622374539277236,0.41711760253090857,-0.24708339316123973,0.719918738092952,-0.7514108020855469,-0.13601909551414332,0.05962175290948537
2024-10-31,0.9999999999999999,0.027142767368956648,-0.21164254331389762,0.5928289728664154,-0.22574290360361457,0.2437355315143031,-0.24816170305534357,0.5901225080666725,-0.7957803022808022,-0.14500295387955459,0.1725006263168648
2024-11-30,1.0,-0.0010756890687570637,-0.1847884043560455,0.5726541491147921,-0.04556753552633564,0.14586527646691866,-0.17443514163631121,0.5767909244417146,-0.812307119660419,-0.17869159693787504,0.10155513716231764
2024-12-31,1.0,0.007114651397010073,-0.15679969976613523,0.563827395874608,0.011997085405075065,0.05458817664531617,-0.17781444627816428,0.6121055375534054,-0.8190078888085653,-0.22446506849960476,0.12845425647705452
2025-01-31,0.9999999999999997,-0.11636323929610813,-0.06527510835862577,0.6336613336631883,0.0022378990739952156,0.018675276271797468,-0.29453992448480465,0.6583656638119232,-0.8434688986239903,-0.12883670724133314,0.13554370518395828
2025-02-28,1.0,-0.11435850405899928,0.14934993671209484,0.5110483940787627,-0.07548542154013296,-0.24746131519922177,-0.38003527394205117,0.6848501265070784,-0.9127200256509587,0.07164506006980487,0.3131670230236229
2025-03-31,1.0,-0.17125205665907875,0.19813408202390514,0.580266260243329,-0.046017446325506875,-0.2829491329032504,-0.35500994235925404,0.6461745442096911,-0.9032442848656769,0.09190755579159056,0.24199042084425054
2025-04-30,0.5112216800364344,-0.10771492344957763,0.10673941347181888,0.6071669137934911,0.12832363227331128,-0.3919322309336824,-0.44153437358004277,0.9303559841576723,-0.4451923587543183,-0.3210422500739997,0.42360851305889297
2025-05-31,0.40356808201338557,-0.18296164780625965,0.09270843573903702,0.6238269473309153,-0.04601591682261524,-0.13773590565005508,-0.434403760142333,0.7855797673614228,-0.3467160204002647,-0.2927410292148441,0.5348910475916112
2025-06-30,-0.3876393346121321,-0.1687636027096324,0.23763046948013059,0.6398263595124012,0.450207084739862,-0.8519310271625739,-0.2975122026813988,0.8836069334401887,-0.21992626833705636,-0.2854984116697892,1.0
2025-07-31,0.037904452141708636,-0.09607548832447639,0.1474553898602016,0.6442139891168596,0.42685107617684565,-0.8163174796180801,-0.33301831667034915,0.9266360967981369,-0.3641769233329902,-0.257423175644064,0.6839503794962073
2025-08-31,-0.0698509734007499,-0.262007580657267,0.3563737766068792,0.6651153444057571,0.42477235464256996,-0.9571548298217204,-0.3268675711827134,1.0,-0.379086275462032,-0.15223376318088822,0.7009395180501645
2025-09-30,0.0573739271624581,-0.2275832408462508,0.23351283906568548,0.5747548466079258,0.12792127135466225,-0.7273407259846185,-0.2189846246558195,1.0,-0.5592140643724592,0.1896758588018967,0.5498839128665197
2025-10-31,-0.2288208489783377,-0.32820347504712943,0.49974246458575905,0.5791921575646753,0.40832837285134177,-1.0,-0.18100358222514315,1.0,-0.5916057421867752,0.08270034118869034,0.7596703122469188
2025-11-30,-0.12798810172336,-0.44626341257020274,0.44339338124223143,0.618307129733369,0.41926866874895863,-1.0,-0.12160563742474229,1.0,-0.7406684029715755,0.22371843677491016,0.7318379381904115
2025-12-31,-0.6553024542723963,-0.5050180743221991,0.5233538691577619,0.6175410980542875,0.4575638532723154,-1.0,-0.04622899725282649,1.0,-0.5751761781838153,0.18326688354687223,1.0
2026-01-31,-0.5810754293085985,-0.5372089625173159,0.49192891440110104,0.6080062883014954,0.4748058702257354,-1.0,-0.013731137673957568,1.0,-0.6011280113527397,0.15840246792428037,0.9999999999999997
2026-02-28,-0.002338802062636624,-0.2202337931628037,0.24153910256803268,0.6070631370381958,0.11183690905049026,-0.7258734601541532,-0.10117301818217306,0.9999999999999999,-0.7229574593497939,0.4070624992425843,0.40507488501225747
2026-03-31,-0.8090152243591232,-0.5293561735780112,0.24119470724122466,0.5142050821919876,0.3418022922471014,-1.0,0.28850538123254954,0.9991859329965933,-0.4661829844688783,0.419660986496556,1.0
2026-04-30,-0.09183406022795185,-0.5224457846429177,0.08283492184425154,0.546563003225891,0.26756624921113614,-0.7768196412891182,0.2657980988047819,0.9346304720724407,-0.595094460508783,0.416590959120492,0.4722102423897777
2026-05-31,-0.8411497084083646,-0.42115850304230057,0.19262924812714521,0.5023176206071676,0.25327047334999636,-0.774343747693684,0.28337214772485364,0.8464561643193642,-0.3323786536386362,0.29098495865445867,0.9999999999999997
